{
  "type": "LSTM",
  "options": {
    "inputSize": 31,
    "inputRange": 31,
    "hiddenSizes": [
      20,
      20
    ],
    "outputSize": 31,
    "learningRate": 0.01,
    "decayRate": 0.999,
    "smoothEps": 1e-8,
    "regc": 0.000001,
    "clipval": 5,
    "json": null,
    "dataFormatter": {
      "values": [
        "buy me a laptop",
        "code",
        "computer",
        "drive",
        "hardware",
        "i broke my pc",
        "i found some bugs in the code",
        "i love computers",
        "i love to play games",
        "i need a new power supply",
        "i swapped the memory",
        "i tested the code",
        "it needs more memory",
        "my unit test failed",
        "power supply",
        "program",
        "programming",
        "software",
        "the drive has a 2TB capacity",
        "tried the program, but it was buggy",
        "unit-tests"
      ],
      "indexTable": {
        "2": 23,
        "b": 0,
        "u": 1,
        "y": 2,
        " ": 3,
        "m": 4,
        "e": 5,
        "a": 6,
        "l": 7,
        "p": 8,
        "t": 9,
        "o": 10,
        "c": 11,
        "d": 12,
        "r": 13,
        "i": 14,
        "v": 15,
        "h": 16,
        "w": 17,
        "k": 18,
        "f": 19,
        "n": 20,
        "s": 21,
        "g": 22,
        "T": 24,
        "B": 25,
        ",": 26,
        "-": 27,
        "stop-input": 28,
        "start-output": 29,
        "unrecognized": 30
      },
      "characterTable": {
        "0": "b",
        "1": "u",
        "2": "y",
        "3": " ",
        "4": "m",
        "5": "e",
        "6": "a",
        "7": "l",
        "8": "p",
        "9": "t",
        "10": "o",
        "11": "c",
        "12": "d",
        "13": "r",
        "14": "i",
        "15": "v",
        "16": "h",
        "17": "w",
        "18": "k",
        "19": "f",
        "20": "n",
        "21": "s",
        "22": "g",
        "23": "2",
        "24": "T",
        "25": "B",
        "26": ",",
        "27": "-",
        "28": "stop-input",
        "29": "start-output",
        "30": "unrecognized"
      },
      "characters": [
        "b",
        "u",
        "y",
        " ",
        "m",
        "e",
        "a",
        "l",
        "p",
        "t",
        "o",
        "c",
        "d",
        "r",
        "i",
        "v",
        "h",
        "w",
        "k",
        "f",
        "n",
        "s",
        "g",
        "2",
        "T",
        "B",
        ",",
        "-",
        "stop-input",
        "start-output",
        "unrecognized"
      ]
    }
  },
  "input": {
    "rows": 32,
    "columns": 31,
    "weights": {
      "0": -1.7968884706497192,
      "1": 0.854780375957489,
      "2": -0.896420419216156,
      "3": -0.8225206732749939,
      "4": -0.5896400213241577,
      "5": 1.0861278772354126,
      "6": -0.12436632812023163,
      "7": 0.4738422930240631,
      "8": -0.9401026368141174,
      "9": 1.7158255577087402,
      "10": -3.6662635803222656,
      "11": 0.2625049352645874,
      "12": -0.5472911596298218,
      "13": -0.915645956993103,
      "14": -0.9695829749107361,
      "15": -1.3203479051589966,
      "16": -0.8208886981010437,
      "17": 0.5391920208930969,
      "18": 1.2377314567565918,
      "19": 1.671125054359436,
      "20": -1.6663635969161987,
      "21": -0.13102729618549347,
      "22": -0.4694816768169403,
      "23": 0.1256352961063385,
      "24": 0.3621058166027069,
      "25": 0.814362645149231,
      "26": -0.5481654405593872,
      "27": -1.0431671142578125,
      "28": -0.8430741429328918,
      "29": 0.2754143178462982,
      "30": -1.5297662019729614,
      "31": 6.588263034820557,
      "32": 5.706634521484375,
      "33": -2.0540266036987305,
      "34": -1.9923616647720337,
      "35": 9.062688827514648,
      "36": -2.3705828189849854,
      "37": 10.905373573303223,
      "38": 1.2936923503875732,
      "39": -1.3526194095611572,
      "40": 4.465662002563477,
      "41": 1.1522306203842163,
      "42": -0.39138561487197876,
      "43": 3.193516254425049,
      "44": -3.0236589908599854,
      "45": -0.6385959386825562,
      "46": 5.259973526000977,
      "47": 2.55696439743042,
      "48": 6.168850421905518,
      "49": 3.698822498321533,
      "50": -1.466856837272644,
      "51": 1.3999550342559814,
      "52": 1.8597372770309448,
      "53": 0.2657068371772766,
      "54": 0.6570085883140564,
      "55": 0.01704288087785244,
      "56": -0.09713996201753616,
      "57": 0.9014728665351868,
      "58": -5.331275939941406,
      "59": 5.746185779571533,
      "60": -2.006412982940674,
      "61": -2.037036895751953,
      "62": -0.8169018626213074,
      "63": -6.196743965148926,
      "64": 3.932629108428955,
      "65": 5.826983451843262,
      "66": 0.163330540060997,
      "67": 2.5371029376983643,
      "68": -2.1542880535125732,
      "69": 1.273964762687683,
      "70": 0.7250268459320068,
      "71": 0.3620631992816925,
      "72": 1.496891736984253,
      "73": -1.4387286901474,
      "74": 1.7626547813415527,
      "75": 3.593134641647339,
      "76": 0.10764734447002411,
      "77": -0.5878846049308777,
      "78": -0.6281976103782654,
      "79": 0.3572920560836792,
      "80": -1.8741185665130615,
      "81": -3.8325765132904053,
      "82": 1.1295663118362427,
      "83": 0.8085051774978638,
      "84": -2.0154008865356445,
      "85": 1.185286045074463,
      "86": 0.41589537262916565,
      "87": -4.693524360656738,
      "88": 0.23112161457538605,
      "89": 3.4945030212402344,
      "90": 0.32369232177734375,
      "91": -0.5853230953216553,
      "92": -1.267329216003418,
      "93": 0.2653605341911316,
      "94": 0.9426191449165344,
      "95": 1.6305780410766602,
      "96": 1.7518693208694458,
      "97": -4.281147480010986,
      "98": -1.8520766496658325,
      "99": 0.3251264691352844,
      "100": -0.011488827876746655,
      "101": 0.5420055389404297,
      "102": 3.6861634254455566,
      "103": 1.092097282409668,
      "104": 0.8599985837936401,
      "105": 0.9697960019111633,
      "106": 2.054891586303711,
      "107": 4.701483726501465,
      "108": -1.6691807508468628,
      "109": 0.4277861714363098,
      "110": 2.095534324645996,
      "111": -1.622923731803894,
      "112": -1.665324330329895,
      "113": 2.0389015674591064,
      "114": 0.6042126417160034,
      "115": -1.2557826042175293,
      "116": -2.627960681915283,
      "117": -3.545945644378662,
      "118": 2.3339505195617676,
      "119": 2.7463619709014893,
      "120": -2.356379270553589,
      "121": 2.997223377227783,
      "122": -2.161684274673462,
      "123": 4.176578998565674,
      "124": -0.8434131145477295,
      "125": -0.9831349849700928,
      "126": 0.44319137930870056,
      "127": 0.6141505837440491,
      "128": 0.09341038763523102,
      "129": 1.0221810340881348,
      "130": -5.039628982543945,
      "131": -0.4697651267051697,
      "132": 2.558624505996704,
      "133": -4.894344806671143,
      "134": 0.20846104621887207,
      "135": 0.12842589616775513,
      "136": -0.9726241827011108,
      "137": 0.19877398014068604,
      "138": -0.7451201677322388,
      "139": -0.6675165295600891,
      "140": -2.7977516651153564,
      "141": -1.538491129875183,
      "142": -1.451237440109253,
      "143": -0.7237825393676758,
      "144": -3.2409796714782715,
      "145": -0.2986385226249695,
      "146": -1.329025387763977,
      "147": -1.9434261322021484,
      "148": 0.731471836566925,
      "149": -0.48372262716293335,
      "150": -4.104837894439697,
      "151": 0.3602462112903595,
      "152": -3.639479637145996,
      "153": -0.14375655353069305,
      "154": -0.6209017038345337,
      "155": 7.408020973205566,
      "156": -1.4576830863952637,
      "157": 0.8890307545661926,
      "158": -1.3868049383163452,
      "159": -0.8071425557136536,
      "160": -2.440692901611328,
      "161": 3.8563127517700195,
      "162": 0.4340621829032898,
      "163": 0.012350840494036674,
      "164": 0.386288583278656,
      "165": -1.7343831062316895,
      "166": 0.9532806277275085,
      "167": 2.804344892501831,
      "168": 1.0261119604110718,
      "169": 1.836936354637146,
      "170": 0.4117092490196228,
      "171": 2.6477105617523193,
      "172": 0.5492713451385498,
      "173": 0.7825350761413574,
      "174": 1.707973837852478,
      "175": 2.7228097915649414,
      "176": -4.79508113861084,
      "177": 0.10166614502668381,
      "178": 2.9740424156188965,
      "179": -3.4984121322631836,
      "180": 0.7966312766075134,
      "181": 3.76143217086792,
      "182": -3.3430514335632324,
      "183": 4.384922027587891,
      "184": -0.038998544216156006,
      "185": -1.0508424043655396,
      "186": 0.34370195865631104,
      "187": -0.27134615182876587,
      "188": 0.9292412400245667,
      "189": 0.39855650067329407,
      "190": 0.269308865070343,
      "191": -0.28293296694755554,
      "192": 0.2241908758878708,
      "193": -0.6571199893951416,
      "194": 1.529977798461914,
      "195": -0.5827443599700928,
      "196": 0.4756651520729065,
      "197": 0.19707873463630676,
      "198": 0.8912161588668823,
      "199": -0.38578009605407715,
      "200": 0.4936777949333191,
      "201": 0.4892187714576721,
      "202": 0.6268454790115356,
      "203": -0.5084625482559204,
      "204": 0.23285992443561554,
      "205": 0.2290043830871582,
      "206": 0.4329557418823242,
      "207": 1.1049587726593018,
      "208": -0.49737006425857544,
      "209": 0.039746809750795364,
      "210": -0.3203655779361725,
      "211": -0.7968037128448486,
      "212": 0.6913606524467468,
      "213": 1.0417436361312866,
      "214": 0.9696578979492188,
      "215": 1.3365519046783447,
      "216": -0.6384001970291138,
      "217": -0.6679762005805969,
      "218": 1.1138522624969482,
      "219": 2.014965772628784,
      "220": -0.6556999683380127,
      "221": 0.1258515864610672,
      "222": 3.0504298210144043,
      "223": -1.3127415180206299,
      "224": -1.5749170780181885,
      "225": 0.25839248299598694,
      "226": 1.4275094270706177,
      "227": 2.1480460166931152,
      "228": 0.10600466281175613,
      "229": -0.703218400478363,
      "230": -0.3050187826156616,
      "231": 0.029948869720101357,
      "232": 0.12437286972999573,
      "233": -0.7356276512145996,
      "234": -1.2953119277954102,
      "235": -1.1125081777572632,
      "236": -0.056764572858810425,
      "237": 0.9215104579925537,
      "238": -0.17199043929576874,
      "239": 0.08997607231140137,
      "240": 0.1910521686077118,
      "241": -0.24644461274147034,
      "242": -0.09495605528354645,
      "243": 0.4584018290042877,
      "244": 0.017759639769792557,
      "245": -0.7362155318260193,
      "246": -0.36045241355895996,
      "247": 0.838034987449646,
      "248": -1.726738452911377,
      "249": -6.559422492980957,
      "250": -0.18236307799816132,
      "251": -0.12164810299873352,
      "252": 1.8202311992645264,
      "253": 3.781003713607788,
      "254": -2.3994901180267334,
      "255": -0.6181507110595703,
      "256": 0.2422458827495575,
      "257": -3.8749594688415527,
      "258": -4.672030448913574,
      "259": -2.8845911026000977,
      "260": -1.2477976083755493,
      "261": 3.2460222244262695,
      "262": 0.3093508780002594,
      "263": 2.655853509902954,
      "264": -0.778714656829834,
      "265": -1.2445682287216187,
      "266": -0.36773681640625,
      "267": -1.025851845741272,
      "268": 4.176421642303467,
      "269": -2.455695390701294,
      "270": 0.3262292444705963,
      "271": 0.16120190918445587,
      "272": -0.4894648492336273,
      "273": -5.43492317199707,
      "274": -0.3459148108959198,
      "275": 1.8455091714859009,
      "276": -1.0518096685409546,
      "277": 6.787189960479736,
      "278": -2.7365946769714355,
      "279": -1.259926676750183,
      "280": 1.223716378211975,
      "281": -1.6296987533569336,
      "282": -2.1625406742095947,
      "283": -0.6121580004692078,
      "284": 2.0179059505462646,
      "285": 1.171034336090088,
      "286": 4.152813911437988,
      "287": -0.32216519117355347,
      "288": 1.5148875713348389,
      "289": 3.2747962474823,
      "290": 0.036467961966991425,
      "291": 0.7929685711860657,
      "292": 1.1100237369537354,
      "293": 3.8045578002929688,
      "294": -1.8630002737045288,
      "295": 0.9051628112792969,
      "296": -0.8429127335548401,
      "297": -2.543342351913452,
      "298": -0.15102647244930267,
      "299": -1.0465755462646484,
      "300": 0.8907411694526672,
      "301": 0.760949432849884,
      "302": -0.7900956273078918,
      "303": -2.5845415592193604,
      "304": -4.150084495544434,
      "305": 1.1992297172546387,
      "306": 5.978465557098389,
      "307": -0.40628355741500854,
      "308": 4.665042877197266,
      "309": 0.27164366841316223,
      "310": 0.9145878553390503,
      "311": 0.6142719388008118,
      "312": 0.21590937674045563,
      "313": -0.9952623844146729,
      "314": -1.0342469215393066,
      "315": 1.5397162437438965,
      "316": 1.0187078714370728,
      "317": -0.18524813652038574,
      "318": 0.4937741756439209,
      "319": -0.2532593607902527,
      "320": -0.32987186312675476,
      "321": -0.1502082347869873,
      "322": -1.1710036993026733,
      "323": -0.7596876621246338,
      "324": -1.977475881576538,
      "325": -1.2995195388793945,
      "326": -0.2550579309463501,
      "327": 0.05764361098408699,
      "328": -0.10651390999555588,
      "329": 0.7251307368278503,
      "330": -0.08343634754419327,
      "331": -0.17164835333824158,
      "332": 0.022173872217535973,
      "333": -0.023868311196565628,
      "334": 0.16893252730369568,
      "335": 0.15532755851745605,
      "336": 0.5632840394973755,
      "337": -0.034405890852212906,
      "338": 1.3321466445922852,
      "339": -0.3947283923625946,
      "340": -0.1531432718038559,
      "341": 3.406630277633667,
      "342": 2.3282477855682373,
      "343": -0.7625415921211243,
      "344": -2.787119150161743,
      "345": 2.17411208152771,
      "346": -1.9551782608032227,
      "347": 1.3887685537338257,
      "348": -0.03538055717945099,
      "349": -0.125288724899292,
      "350": 0.4846290051937103,
      "351": 0.5629477500915527,
      "352": -1.1918745040893555,
      "353": 1.6315945386886597,
      "354": 0.4830448031425476,
      "355": 0.9366170763969421,
      "356": 1.9943296909332275,
      "357": 1.9337464570999146,
      "358": 0.7235999703407288,
      "359": 3.4005517959594727,
      "360": 0.6622777581214905,
      "361": -0.8039633631706238,
      "362": 0.38060101866722107,
      "363": 2.4127659797668457,
      "364": -0.5464191436767578,
      "365": -1.788285255432129,
      "366": 3.1035242080688477,
      "367": 0.022397788241505623,
      "368": -2.2771921157836914,
      "369": 0.3276887834072113,
      "370": -0.0749582052230835,
      "371": -0.6584835648536682,
      "372": 0.5771318078041077,
      "373": -0.40022602677345276,
      "374": 7.284521579742432,
      "375": -0.3924432396888733,
      "376": 2.367990493774414,
      "377": 10.173009872436523,
      "378": -4.440425872802734,
      "379": -6.078746318817139,
      "380": 4.622658729553223,
      "381": -0.2213626503944397,
      "382": 6.339853763580322,
      "383": -1.0519094467163086,
      "384": 0.44615960121154785,
      "385": 3.0632026195526123,
      "386": 1.8781323432922363,
      "387": 0.9428975582122803,
      "388": 0.6434262990951538,
      "389": -6.723907470703125,
      "390": -4.452946186065674,
      "391": -4.478756904602051,
      "392": 4.164039134979248,
      "393": 0.9037556648254395,
      "394": 1.8189767599105835,
      "395": -0.422615647315979,
      "396": 2.909548759460449,
      "397": -0.420842707157135,
      "398": -0.5861379504203796,
      "399": 5.578551769256592,
      "400": -1.7432256937026978,
      "401": -1.1518638134002686,
      "402": 2.5704476833343506,
      "403": -1.6005803346633911,
      "404": 1.0971996784210205,
      "405": -3.206249952316284,
      "406": 0.1374436914920807,
      "407": -2.999145984649658,
      "408": 0.9420537352561951,
      "409": 4.850701332092285,
      "410": 3.7997822761535645,
      "411": -3.321845293045044,
      "412": 0.3569466769695282,
      "413": 0.4651740789413452,
      "414": 0.9147549867630005,
      "415": -0.40447738766670227,
      "416": -1.2956434488296509,
      "417": -1.824769377708435,
      "418": 1.7888020277023315,
      "419": 0.38093262910842896,
      "420": 4.741479396820068,
      "421": 0.5845659375190735,
      "422": 3.836754322052002,
      "423": -0.6664096117019653,
      "424": -2.2544238567352295,
      "425": -0.8513203859329224,
      "426": 1.3260051012039185,
      "427": 3.1880624294281006,
      "428": 0.3026111125946045,
      "429": 0.44292858242988586,
      "430": 0.49306413531303406,
      "431": 2.1366524696350098,
      "432": -0.7187801599502563,
      "433": -0.39837566018104553,
      "434": 0.6401802897453308,
      "435": -0.09340128302574158,
      "436": -0.7375161647796631,
      "437": 0.5247540473937988,
      "438": 0.3841911256313324,
      "439": -1.0036256313323975,
      "440": 0.17932984232902527,
      "441": 1.901228904724121,
      "442": -2.4287872314453125,
      "443": -0.2007092386484146,
      "444": -1.075226902961731,
      "445": 0.6875534057617188,
      "446": 2.9122707843780518,
      "447": -0.9723119139671326,
      "448": -1.1728956699371338,
      "449": -1.48530113697052,
      "450": 3.457249164581299,
      "451": 0.9574301242828369,
      "452": 1.5411211252212524,
      "453": 0.5811330676078796,
      "454": -0.5562061667442322,
      "455": -0.10969327390193939,
      "456": 1.6700018644332886,
      "457": 1.1288928985595703,
      "458": -1.0456514358520508,
      "459": 1.1155309677124023,
      "460": 1.8082889318466187,
      "461": -0.7377959489822388,
      "462": 1.0349584817886353,
      "463": -1.3709232807159424,
      "464": -1.147857904434204,
      "465": 0.08442242443561554,
      "466": 1.4839904308319092,
      "467": -2.662673234939575,
      "468": -1.730421543121338,
      "469": 0.5162872076034546,
      "470": -0.8307163715362549,
      "471": -1.8408206701278687,
      "472": -0.029596108943223953,
      "473": 1.1117780208587646,
      "474": 0.6678232550621033,
      "475": -2.272855758666992,
      "476": 1.557004690170288,
      "477": 3.154337167739868,
      "478": 3.3332111835479736,
      "479": 2.970815420150757,
      "480": 1.7283809185028076,
      "481": 0.8274714350700378,
      "482": -1.767715334892273,
      "483": 0.562384307384491,
      "484": -0.06736303865909576,
      "485": -0.08511704951524734,
      "486": -2.1913082599639893,
      "487": 1.8456532955169678,
      "488": -0.13491983711719513,
      "489": -1.1701774597167969,
      "490": 3.1713743209838867,
      "491": 0.8588416576385498,
      "492": -3.9357006549835205,
      "493": -2.477296829223633,
      "494": 0.35551077127456665,
      "495": -1.7291165590286255,
      "496": 0.5056760311126709,
      "497": -0.4335682988166809,
      "498": -4.1493306159973145,
      "499": 2.3451480865478516,
      "500": 4.0495429039001465,
      "501": -2.4403748512268066,
      "502": 4.567545413970947,
      "503": 0.557226836681366,
      "504": -1.5062029361724854,
      "505": -0.1676642894744873,
      "506": -5.4855499267578125,
      "507": -2.8787055015563965,
      "508": 6.236588478088379,
      "509": -0.7380461692810059,
      "510": -2.7519452571868896,
      "511": 1.655538558959961,
      "512": 2.959667205810547,
      "513": 6.255463123321533,
      "514": 3.596072196960449,
      "515": -0.5248819589614868,
      "516": 1.1277096271514893,
      "517": 0.25867897272109985,
      "518": 1.642595887184143,
      "519": 2.067640781402588,
      "520": -0.7085618376731873,
      "521": -0.5111544728279114,
      "522": 3.492819309234619,
      "523": -0.6391375660896301,
      "524": 2.809663772583008,
      "525": -1.7570329904556274,
      "526": -1.088874101638794,
      "527": 2.3280763626098633,
      "528": 1.2593380212783813,
      "529": 2.1176116466522217,
      "530": -3.3893277645111084,
      "531": -3.0537002086639404,
      "532": 1.7681609392166138,
      "533": -0.2644162178039551,
      "534": -2.330930709838867,
      "535": 1.1439779996871948,
      "536": 0.6520935893058777,
      "537": 0.7921012043952942,
      "538": 1.4236693382263184,
      "539": -0.3079783022403717,
      "540": 0.6796322464942932,
      "541": 0.67514568567276,
      "542": -3.844130039215088,
      "543": 1.0734597444534302,
      "544": 0.9739821553230286,
      "545": -2.234896183013916,
      "546": -1.0552304983139038,
      "547": 2.271897554397583,
      "548": -3.0612969398498535,
      "549": 0.46663007140159607,
      "550": -0.9550682306289673,
      "551": -2.2766966819763184,
      "552": 3.266146421432495,
      "553": 0.853835940361023,
      "554": 1.4107098579406738,
      "555": -1.3992884159088135,
      "556": -1.8385714292526245,
      "557": 0.5629487037658691,
      "558": 0.9317959547042847,
      "559": -1.4625561237335205,
      "560": -0.16832904517650604,
      "561": 2.3470518589019775,
      "562": 0.2375393956899643,
      "563": -0.6399089097976685,
      "564": 0.2969386577606201,
      "565": 1.1154626607894897,
      "566": -0.4267898499965668,
      "567": 0.6522130966186523,
      "568": 0.8021137118339539,
      "569": 0.19935522973537445,
      "570": 0.5335290431976318,
      "571": 0.7934983372688293,
      "572": -0.48548734188079834,
      "573": -0.1724313497543335,
      "574": 1.0429893732070923,
      "575": -1.2515442371368408,
      "576": -0.18159526586532593,
      "577": 1.4583672285079956,
      "578": 0.9928953051567078,
      "579": 0.9493944048881531,
      "580": -2.7151265144348145,
      "581": 0.7522758841514587,
      "582": 1.9949532747268677,
      "583": -1.6236238479614258,
      "584": -0.9023110270500183,
      "585": 0.14197418093681335,
      "586": 0.5693901181221008,
      "587": 0.014465647749602795,
      "588": -0.7692837119102478,
      "589": 3.863577127456665,
      "590": -7.814067363739014,
      "591": 7.479269027709961,
      "592": 4.994292736053467,
      "593": -7.219280242919922,
      "594": 8.171788215637207,
      "595": 0.3159632980823517,
      "596": -1.040310263633728,
      "597": -1.5529111623764038,
      "598": -0.1845356822013855,
      "599": -0.6230392456054688,
      "600": 9.001861572265625,
      "601": 11.46397590637207,
      "602": 2.366633892059326,
      "603": -12.176913261413574,
      "604": -8.275809288024902,
      "605": 17.39383316040039,
      "606": 3.1849281787872314,
      "607": -3.582289457321167,
      "608": -4.8216729164123535,
      "609": 10.62945556640625,
      "610": 1.3016107082366943,
      "611": -2.4384925365448,
      "612": 7.6208038330078125,
      "613": -3.055694341659546,
      "614": -0.6830262541770935,
      "615": 25.097768783569336,
      "616": 5.075344085693359,
      "617": 7.113643646240234,
      "618": -9.749805450439453,
      "619": 5.621379852294922,
      "620": 0.2124643176794052,
      "621": 4.056384086608887,
      "622": -2.4795048236846924,
      "623": -1.4020822048187256,
      "624": -1.063986897468567,
      "625": 0.08733893185853958,
      "626": 4.726683139801025,
      "627": 1.5604015588760376,
      "628": -2.185866355895996,
      "629": 2.7829430103302,
      "630": 1.2978031635284424,
      "631": 0.5413783192634583,
      "632": -0.15013577044010162,
      "633": 1.863448977470398,
      "634": 3.4714274406433105,
      "635": -0.7766037583351135,
      "636": 0.5981475114822388,
      "637": 2.9412357807159424,
      "638": 3.372556686401367,
      "639": 4.1107497215271,
      "640": 1.1928412914276123,
      "641": -0.3889155089855194,
      "642": 1.6711212396621704,
      "643": 1.0372600555419922,
      "644": 0.0405564084649086,
      "645": 2.50199031829834,
      "646": -0.8982195258140564,
      "647": -3.076683521270752,
      "648": 5.976356029510498,
      "649": -1.756925344467163,
      "650": -0.6183524131774902,
      "651": -1.5607134103775024,
      "652": -1.257956624031067,
      "653": 0.573297381401062,
      "654": -5.0078444480896,
      "655": 2.2337234020233154,
      "656": -0.16241700947284698,
      "657": 1.0766963958740234,
      "658": 0.08942686021327972,
      "659": -0.0745600014925003,
      "660": -5.9720611572265625,
      "661": -3.265058755874634,
      "662": 4.137966632843018,
      "663": 1.1301469802856445,
      "664": -1.0383715629577637,
      "665": -1.8286330699920654,
      "666": 4.369943141937256,
      "667": 3.248157262802124,
      "668": 0.728589653968811,
      "669": 0.4675755500793457,
      "670": 1.5573792457580566,
      "671": -0.08407372236251831,
      "672": -1.3425272703170776,
      "673": 2.997676134109497,
      "674": 2.8675854206085205,
      "675": 2.9936583042144775,
      "676": 2.443525791168213,
      "677": -1.6153250932693481,
      "678": -0.43763670325279236,
      "679": -1.591507911682129,
      "680": -4.996118068695068,
      "681": -1.2234060764312744,
      "682": -3.0755090713500977,
      "683": -1.6872752904891968,
      "684": -0.806757926940918,
      "685": 0.9489981532096863,
      "686": -0.04436967894434929,
      "687": -0.0813906341791153,
      "688": -3.271289587020874,
      "689": -1.4079530239105225,
      "690": -0.42686158418655396,
      "691": -0.408278226852417,
      "692": -0.3322170078754425,
      "693": 1.2791801691055298,
      "694": -1.3693428039550781,
      "695": -1.2070274353027344,
      "696": 0.5875037908554077,
      "697": -1.6267061233520508,
      "698": -2.46759295463562,
      "699": -2.0704891681671143,
      "700": -1.4997670650482178,
      "701": -0.14770984649658203,
      "702": -2.518723726272583,
      "703": -0.1866082102060318,
      "704": -2.277388334274292,
      "705": -0.014309288933873177,
      "706": 0.2610768973827362,
      "707": -0.20536698400974274,
      "708": -1.7669373750686646,
      "709": -1.6693826913833618,
      "710": -4.116422653198242,
      "711": 0.07041943818330765,
      "712": 0.9647031426429749,
      "713": 2.732186794281006,
      "714": -1.0105621814727783,
      "715": -0.28828322887420654,
      "716": -3.1579580307006836,
      "717": 4.184240341186523,
      "718": -0.9927993416786194,
      "719": -1.8354816436767578,
      "720": -3.672365665435791,
      "721": 0.6951733827590942,
      "722": -0.591835618019104,
      "723": -0.6336917877197266,
      "724": -1.0539997816085815,
      "725": -0.287397563457489,
      "726": -1.9983242750167847,
      "727": -3.518603801727295,
      "728": 0.6439949870109558,
      "729": -0.8573324084281921,
      "730": -4.440397262573242,
      "731": 4.308921813964844,
      "732": 5.81743860244751,
      "733": 5.759317398071289,
      "734": -2.3384811878204346,
      "735": 2.19451642036438,
      "736": 1.3437258005142212,
      "737": 0.6735198497772217,
      "738": 3.7574808597564697,
      "739": -0.41396188735961914,
      "740": -3.293415069580078,
      "741": -2.6891684532165527,
      "742": -0.7829264402389526,
      "743": -3.3655707836151123,
      "744": -1.8503235578536987,
      "745": 2.4516711235046387,
      "746": -2.185650587081909,
      "747": 0.6013381481170654,
      "748": 6.496795177459717,
      "749": 3.0548415184020996,
      "750": -2.000288486480713,
      "751": -4.234549045562744,
      "752": 21.144615173339844,
      "753": -5.779148101806641,
      "754": -8.8873291015625,
      "755": 1.1364854574203491,
      "756": 10.320626258850098,
      "757": 6.656729698181152,
      "758": 4.833835124969482,
      "759": -7.409307479858398,
      "760": -0.7468668818473816,
      "761": -10.055072784423828,
      "762": -4.564577102661133,
      "763": -6.681550979614258,
      "764": -13.816221237182617,
      "765": 5.177870750427246,
      "766": 5.316100597381592,
      "767": -14.838593482971191,
      "768": 8.723526000976562,
      "769": 6.844405174255371,
      "770": 2.2151074409484863,
      "771": 3.5044007301330566,
      "772": 4.5924391746521,
      "773": 1.5810240507125854,
      "774": 6.904831886291504,
      "775": -9.35366153717041,
      "776": 0.7126398086547852,
      "777": -2.3895294666290283,
      "778": 8.527588844299316,
      "779": 2.4239704608917236,
      "780": -1.7852295637130737,
      "781": -10.939457893371582,
      "782": 2.610264778137207,
      "783": 3.600334405899048,
      "784": -15.515103340148926,
      "785": 4.390644073486328,
      "786": -4.679448127746582,
      "787": -13.946706771850586,
      "788": -1.5722780227661133,
      "789": -3.167802095413208,
      "790": 1.7207590341567993,
      "791": -9.064348220825195,
      "792": -7.9494547843933105,
      "793": -5.703888893127441,
      "794": 3.211416721343994,
      "795": -8.61599349975586,
      "796": 4.990965366363525,
      "797": -2.811866521835327,
      "798": 2.410341262817383,
      "799": 5.347365856170654,
      "800": 2.7593579292297363,
      "801": -13.438817024230957,
      "802": 12.625755310058594,
      "803": -14.644786834716797,
      "804": 3.8015222549438477,
      "805": -0.6445031762123108,
      "806": -9.745160102844238,
      "807": 4.696288108825684,
      "808": 5.755138874053955,
      "809": -2.9549720287323,
      "810": -7.3202104568481445,
      "811": 10.167840003967285,
      "812": 5.0311408042907715,
      "813": 3.4629266262054443,
      "814": -10.944482803344727,
      "815": 9.483074188232422,
      "816": -11.035743713378906,
      "817": -5.903095245361328,
      "818": -2.8237149715423584,
      "819": 5.153205871582031,
      "820": -1.633135437965393,
      "821": 0.45961618423461914,
      "822": -0.9984415769577026,
      "823": -4.529662132263184,
      "824": -3.039196014404297,
      "825": 4.7249016761779785,
      "826": -1.9880599975585938,
      "827": 4.360663890838623,
      "828": -6.036118984222412,
      "829": 12.892485618591309,
      "830": -1.1807206869125366,
      "831": -8.909058570861816,
      "832": -9.174056053161621,
      "833": 16.247028350830078,
      "834": -2.8245956897735596,
      "835": 9.752969741821289,
      "836": -10.563010215759277,
      "837": -0.09480004012584686,
      "838": 0.8473681211471558,
      "839": 1.07281494140625,
      "840": -18.618606567382812,
      "841": 8.78493595123291,
      "842": -9.859330177307129,
      "843": -1.3216837644577026,
      "844": 1.2318145036697388,
      "845": -1.4760222434997559,
      "846": 10.476801872253418,
      "847": 8.583588600158691,
      "848": 5.559135437011719,
      "849": -0.19028997421264648,
      "850": -4.072885036468506,
      "851": 7.199113845825195,
      "852": 0.6665067672729492,
      "853": 2.3668665885925293,
      "854": -3.4775278568267822,
      "855": 3.9244861602783203,
      "856": 0.8592990636825562,
      "857": 1.4528886079788208,
      "858": -11.229156494140625,
      "859": 13.978787422180176,
      "860": 1.4542148113250732,
      "861": -4.081835746765137,
      "862": 0.42315229773521423,
      "863": 2.249664783477783,
      "864": -18.308120727539062,
      "865": 2.9508211612701416,
      "866": 0.4626249074935913,
      "867": 7.999783992767334,
      "868": 3.4042141437530518,
      "869": -6.095990180969238,
      "870": -0.3876795470714569,
      "871": -0.7665393352508545,
      "872": 7.434215545654297,
      "873": -18.616220474243164,
      "874": 4.983612537384033,
      "875": 3.8025171756744385,
      "876": -5.211770534515381,
      "877": 2.089385986328125,
      "878": -0.24393941462039948,
      "879": -1.0770666599273682,
      "880": 11.184123039245605,
      "881": -7.2662434577941895,
      "882": 7.62759256362915,
      "883": 8.412491798400879,
      "884": 8.413651466369629,
      "885": -3.7331130504608154,
      "886": 6.968430519104004,
      "887": 3.7481260299682617,
      "888": -8.332149505615234,
      "889": 8.652673721313477,
      "890": 4.7620368003845215,
      "891": 1.7699369192123413,
      "892": -4.623091220855713,
      "893": 1.5740047693252563,
      "894": 5.230549335479736,
      "895": -4.211609363555908,
      "896": 5.598262786865234,
      "897": 12.958843231201172,
      "898": 0.19675032794475555,
      "899": -1.0907769203186035,
      "900": -0.3202930688858032,
      "901": 1.363690972328186,
      "902": 3.5765106678009033,
      "903": -4.515623569488525,
      "904": 1.0695452690124512,
      "905": -3.042524576187134,
      "906": -0.3727628290653229,
      "907": 1.2937698364257812,
      "908": 2.423849105834961,
      "909": -0.0882045179605484,
      "910": -0.28498080372810364,
      "911": 0.8322696089744568,
      "912": 2.137021064758301,
      "913": 3.772324323654175,
      "914": -1.6842998266220093,
      "915": -1.026153326034546,
      "916": -1.6782667636871338,
      "917": 0.1811743676662445,
      "918": -1.1634645462036133,
      "919": -1.2789671421051025,
      "920": 2.1885788440704346,
      "921": -2.3081986904144287,
      "922": -2.723910331726074,
      "923": -0.8289103507995605,
      "924": -0.8792268633842468,
      "925": 1.070489764213562,
      "926": 1.0899964570999146,
      "927": -1.1905514001846313,
      "928": 1.4224785566329956,
      "929": 3.0874695777893066,
      "930": -1.4706207513809204,
      "931": -1.3286091089248657,
      "932": -1.544357180595398,
      "933": 0.6116227507591248,
      "934": 1.0125693082809448,
      "935": -0.7975990176200867,
      "936": 0.20319046080112457,
      "937": 1.6498236656188965,
      "938": -2.618757963180542,
      "939": -0.6688235998153687,
      "940": -2.717588186264038,
      "941": 1.0687716007232666,
      "942": 0.7183601260185242,
      "943": -1.3793121576309204,
      "944": -2.4889490604400635,
      "945": 1.5078282356262207,
      "946": 1.1297502517700195,
      "947": 0.7427237033843994,
      "948": 0.9916728138923645,
      "949": 0.9387221336364746,
      "950": -0.9271945357322693,
      "951": -0.7780837416648865,
      "952": 1.7068045139312744,
      "953": -0.20463205873966217,
      "954": -0.8125738501548767,
      "955": 1.7768559455871582,
      "956": -0.6563248038291931,
      "957": 0.1341945230960846,
      "958": -0.15532678365707397,
      "959": 1.2381917238235474,
      "960": -2.8972790241241455,
      "961": 0.06997691839933395,
      "962": 0.026095548644661903,
      "963": -0.02137031964957714,
      "964": -0.052677419036626816,
      "965": -0.05395578593015671,
      "966": -0.03785227984189987,
      "967": -0.030700646340847015,
      "968": -0.05657922849059105,
      "969": -0.04761137440800667,
      "970": -0.007702998351305723,
      "971": -0.026732178404927254,
      "972": 0.021136349067091942,
      "973": -0.04903566092252731,
      "974": -0.055715691298246384,
      "975": -0.07529150694608688,
      "976": 0.029851112514734268,
      "977": -0.05318521708250046,
      "978": -0.010286710225045681,
      "979": 0.027749450877308846,
      "980": 0.056869544088840485,
      "981": 0.04004468396306038,
      "982": 0.018820006400346756,
      "983": 0.06397199630737305,
      "984": 0.062298648059368134,
      "985": 0.02711540460586548,
      "986": 0.015306644141674042,
      "987": -0.013676805421710014,
      "988": -0.0038399621844291687,
      "989": 0.022963033989071846,
      "990": -0.05777747556567192,
      "991": -0.02655375376343727
    }
  },
  "hiddenLayers": [
    {
      "inputMatrix": {
        "rows": 20,
        "columns": 31,
        "weights": {
          "0": -1.5263210535049438,
          "1": 0.2566394805908203,
          "2": -0.07932523638010025,
          "3": -3.028182029724121,
          "4": -3.0275683403015137,
          "5": 2.0199174880981445,
          "6": 0.2626844346523285,
          "7": -0.5678994059562683,
          "8": -0.5066181421279907,
          "9": 2.2081756591796875,
          "10": 1.2628016471862793,
          "11": 2.9330151081085205,
          "12": -0.1321701854467392,
          "13": -0.6306573152542114,
          "14": 2.0463662147521973,
          "15": -2.322404146194458,
          "16": -1.4734630584716797,
          "17": 0.09481846541166306,
          "18": -1.6235731840133667,
          "19": 0.49187958240509033,
          "20": 0.4355771243572235,
          "21": -2.0993118286132812,
          "22": 0.08671483397483826,
          "23": 0.0995832160115242,
          "24": -0.05404405668377876,
          "25": 0.9605196714401245,
          "26": 1.4276231527328491,
          "27": -1.970840334892273,
          "28": -0.6166091561317444,
          "29": -1.2736682891845703,
          "30": 1.2844208478927612,
          "31": 1.6867640018463135,
          "32": -1.965959906578064,
          "33": 1.6078364849090576,
          "34": 1.4249236583709717,
          "35": 2.1935062408447266,
          "36": -0.7631564140319824,
          "37": -1.4167841672897339,
          "38": -1.6776362657546997,
          "39": 0.305768758058548,
          "40": 0.2855832874774933,
          "41": -1.1503472328186035,
          "42": 0.5096328854560852,
          "43": 0.8682146072387695,
          "44": -1.330474615097046,
          "45": -0.6401084065437317,
          "46": 1.732290267944336,
          "47": 1.2206826210021973,
          "48": -2.0019876956939697,
          "49": 0.29134684801101685,
          "50": -0.09723630547523499,
          "51": 2.2290682792663574,
          "52": 0.022694818675518036,
          "53": -0.7944449186325073,
          "54": 1.311684489250183,
          "55": -1.033306360244751,
          "56": 0.6900399923324585,
          "57": 3.5590431690216064,
          "58": -1.7970260381698608,
          "59": -0.1286991685628891,
          "60": -1.1521353721618652,
          "61": -0.4696323275566101,
          "62": 0.787088930606842,
          "63": -1.8060755729675293,
          "64": -1.5223631858825684,
          "65": 2.048764228820801,
          "66": 0.18385650217533112,
          "67": -0.928892195224762,
          "68": -0.627082109451294,
          "69": 1.551783800125122,
          "70": 1.4906173944473267,
          "71": -1.3427958488464355,
          "72": 0.34255918860435486,
          "73": -1.4359333515167236,
          "74": 1.1243464946746826,
          "75": 0.22951795160770416,
          "76": 0.31596139073371887,
          "77": -0.8018583059310913,
          "78": 1.0183141231536865,
          "79": -3.103717088699341,
          "80": -1.755789041519165,
          "81": 1.6742192506790161,
          "82": -1.61752188205719,
          "83": 2.728550672531128,
          "84": -1.2500349283218384,
          "85": -1.162388563156128,
          "86": 0.7311564683914185,
          "87": -2.207554817199707,
          "88": -1.7219748497009277,
          "89": 2.8591063022613525,
          "90": -0.045434679836034775,
          "91": 3.43092679977417,
          "92": -0.8726920485496521,
          "93": -1.6023885011672974,
          "94": -1.311486005783081,
          "95": -1.372026801109314,
          "96": 1.2308275699615479,
          "97": -1.0712729692459106,
          "98": -0.15189315378665924,
          "99": 0.027505146339535713,
          "100": 1.5430824756622314,
          "101": -0.8210703134536743,
          "102": -0.5767760872840881,
          "103": 0.8229764699935913,
          "104": 0.6113611459732056,
          "105": -1.2543768882751465,
          "106": 0.2103278487920761,
          "107": 0.05676746368408203,
          "108": -0.28218308091163635,
          "109": -1.472610354423523,
          "110": -0.5181201100349426,
          "111": -0.9909329414367676,
          "112": 0.5253974199295044,
          "113": -0.6195969581604004,
          "114": 0.21225640177726746,
          "115": -1.0718399286270142,
          "116": -0.811100423336029,
          "117": 0.7912012338638306,
          "118": -0.10240199416875839,
          "119": -1.9258859157562256,
          "120": 1.1511653661727905,
          "121": -0.13064590096473694,
          "122": -0.9948034882545471,
          "123": -0.5842027068138123,
          "124": -2.6033620834350586,
          "125": 1.0862959623336792,
          "126": 0.6740445494651794,
          "127": -1.4260250329971313,
          "128": -0.1613331437110901,
          "129": 3.402506113052368,
          "130": 0.11099694669246674,
          "131": -0.4105013608932495,
          "132": 0.16327664256095886,
          "133": -0.052138641476631165,
          "134": 0.7608259320259094,
          "135": 0.5411210060119629,
          "136": -1.817524790763855,
          "137": 0.4006603956222534,
          "138": 0.03575696423649788,
          "139": -1.6091914176940918,
          "140": -1.8220412731170654,
          "141": -0.47752025723457336,
          "142": -0.4713805317878723,
          "143": -0.38313210010528564,
          "144": -2.520979881286621,
          "145": -0.12237107753753662,
          "146": 0.07039865851402283,
          "147": -0.3428424000740051,
          "148": -0.08204071968793869,
          "149": -1.5461121797561646,
          "150": 0.2729714512825012,
          "151": 1.4465489387512207,
          "152": -1.5509260892868042,
          "153": 0.2812480032444,
          "154": -0.3260899484157562,
          "155": 0.9130672812461853,
          "156": -0.9625383615493774,
          "157": 3.783841133117676,
          "158": 1.822916030883789,
          "159": -1.4942848682403564,
          "160": 2.288027286529541,
          "161": 0.40943852066993713,
          "162": -1.1970033645629883,
          "163": 1.1623742580413818,
          "164": 0.044869907200336456,
          "165": 0.4672245383262634,
          "166": -1.4480301141738892,
          "167": -1.7424014806747437,
          "168": 1.7187578678131104,
          "169": -0.2833234667778015,
          "170": 1.0138949155807495,
          "171": -0.6512615084648132,
          "172": -0.5745824575424194,
          "173": -0.5341706275939941,
          "174": -1.4816054105758667,
          "175": 0.9753060936927795,
          "176": 0.4402429163455963,
          "177": -1.9874364137649536,
          "178": 0.727543294429779,
          "179": 0.9176563620567322,
          "180": -1.7839703559875488,
          "181": 0.37056270241737366,
          "182": 1.1930032968521118,
          "183": 0.7808375358581543,
          "184": -0.23039230704307556,
          "185": 0.3893945515155792,
          "186": -1.128320574760437,
          "187": -1.6423590183258057,
          "188": 0.01571657694876194,
          "189": 0.3690114915370941,
          "190": 0.7727366089820862,
          "191": -0.5986571311950684,
          "192": -2.367579460144043,
          "193": -0.6436163783073425,
          "194": 1.6365970373153687,
          "195": -1.5620367527008057,
          "196": 1.9255554676055908,
          "197": -0.4235967695713043,
          "198": 0.3171842694282532,
          "199": 0.5921850204467773,
          "200": 0.28021788597106934,
          "201": 1.4891644716262817,
          "202": -1.2004613876342773,
          "203": -2.9122297763824463,
          "204": -0.3779655694961548,
          "205": 0.049709759652614594,
          "206": 0.6979563236236572,
          "207": -0.3197159469127655,
          "208": -0.7744142413139343,
          "209": 0.012291734106838703,
          "210": 1.64976167678833,
          "211": -0.07042594999074936,
          "212": -0.23036104440689087,
          "213": 1.363647699356079,
          "214": -2.533759832382202,
          "215": 1.14214289188385,
          "216": -0.4308566153049469,
          "217": 0.36163049936294556,
          "218": 0.7668047547340393,
          "219": 1.1000300645828247,
          "220": 1.1739275455474854,
          "221": -1.4587717056274414,
          "222": 0.6679800152778625,
          "223": -1.1164016723632812,
          "224": -0.6154273748397827,
          "225": -1.6174736022949219,
          "226": 0.7477299571037292,
          "227": -0.8140649199485779,
          "228": -0.017208311706781387,
          "229": -2.66757869720459,
          "230": 0.033659446984529495,
          "231": -0.8481393456459045,
          "232": -2.1765968799591064,
          "233": -1.7853124141693115,
          "234": 0.22430363297462463,
          "235": -0.18177452683448792,
          "236": -1.522516131401062,
          "237": 0.007860316894948483,
          "238": 0.2899208962917328,
          "239": -2.0413498878479004,
          "240": 1.336948275566101,
          "241": -0.14037232100963593,
          "242": -0.6230137348175049,
          "243": -0.7505521178245544,
          "244": -0.9124246835708618,
          "245": -0.5729395151138306,
          "246": -1.0061781406402588,
          "247": 0.46835628151893616,
          "248": -0.29182133078575134,
          "249": 0.9495863914489746,
          "250": 1.4155036211013794,
          "251": 0.10428699851036072,
          "252": 0.6047755479812622,
          "253": 1.2335985898971558,
          "254": -0.8792898058891296,
          "255": -1.2466809749603271,
          "256": 1.0599040985107422,
          "257": 0.3096030652523041,
          "258": 0.3968217074871063,
          "259": -0.30114075541496277,
          "260": 0.6436597108840942,
          "261": 2.2202343940734863,
          "262": 1.884194254875183,
          "263": -0.7094816565513611,
          "264": 0.7215873003005981,
          "265": -2.532827615737915,
          "266": -1.81324303150177,
          "267": 1.1818662881851196,
          "268": -0.5669495463371277,
          "269": 0.592769205570221,
          "270": -0.7348095178604126,
          "271": -0.06759847700595856,
          "272": -0.2332587093114853,
          "273": -1.6518149375915527,
          "274": -0.1965787559747696,
          "275": 0.6477913856506348,
          "276": -0.5855939984321594,
          "277": 1.360257863998413,
          "278": -0.4449642598628998,
          "279": -2.0483031272888184,
          "280": -1.2142130136489868,
          "281": 2.2155652046203613,
          "282": -0.43471476435661316,
          "283": -0.11483602970838547,
          "284": 1.4849085807800293,
          "285": -1.8393830060958862,
          "286": -1.460215449333191,
          "287": 1.0082006454467773,
          "288": -1.6652171611785889,
          "289": 0.07724254578351974,
          "290": 0.17531247437000275,
          "291": -0.13097229599952698,
          "292": 0.9605724811553955,
          "293": 0.6933766603469849,
          "294": 0.8664218783378601,
          "295": -0.9101690053939819,
          "296": -0.6826381683349609,
          "297": -1.6267831325531006,
          "298": -1.3924001455307007,
          "299": -0.14634035527706146,
          "300": 0.0017401296645402908,
          "301": 0.5048784017562866,
          "302": -1.5545824766159058,
          "303": -0.38565143942832947,
          "304": 0.37924090027809143,
          "305": -1.2895264625549316,
          "306": 1.2628904581069946,
          "307": -1.7343783378601074,
          "308": 0.6757269501686096,
          "309": 1.096926212310791,
          "310": 0.1844439059495926,
          "311": -2.878589153289795,
          "312": -0.21975935995578766,
          "313": -0.5548722147941589,
          "314": -0.13477657735347748,
          "315": 0.5568079352378845,
          "316": 1.3436957597732544,
          "317": 0.7717657089233398,
          "318": -0.42074742913246155,
          "319": -2.0727787017822266,
          "320": 0.2830207943916321,
          "321": -0.7689499855041504,
          "322": -2.7541491985321045,
          "323": -0.005812658928334713,
          "324": -1.1014314889907837,
          "325": -1.6407032012939453,
          "326": -1.717562198638916,
          "327": 1.6911966800689697,
          "328": -0.42863085865974426,
          "329": -0.7092033624649048,
          "330": -0.7062833309173584,
          "331": -1.415972352027893,
          "332": -0.2724333703517914,
          "333": -0.22789907455444336,
          "334": 0.4242444336414337,
          "335": -0.23893217742443085,
          "336": -3.337467908859253,
          "337": 0.8615777492523193,
          "338": -0.5376724600791931,
          "339": -0.7434777617454529,
          "340": -0.18680799007415771,
          "341": 2.713810443878174,
          "342": 0.6197397112846375,
          "343": 0.36892807483673096,
          "344": -0.6002216339111328,
          "345": 2.484203338623047,
          "346": -0.8525669574737549,
          "347": -0.3339065611362457,
          "348": -0.30067533254623413,
          "349": 0.33701545000076294,
          "350": 0.08867460489273071,
          "351": 0.24291345477104187,
          "352": 0.7394229173660278,
          "353": 1.4200363159179688,
          "354": 0.2480640560388565,
          "355": -0.1881534308195114,
          "356": 0.09758447855710983,
          "357": 3.7051262855529785,
          "358": -0.6894667148590088,
          "359": 0.34736186265945435,
          "360": 0.8129464387893677,
          "361": 0.9140151739120483,
          "362": -0.40639907121658325,
          "363": 1.5086331367492676,
          "364": 2.0107831954956055,
          "365": 0.18487811088562012,
          "366": 0.28871652483940125,
          "367": 1.4032851457595825,
          "368": -0.3108147382736206,
          "369": 0.19897910952568054,
          "370": -0.43826401233673096,
          "371": -1.1663501262664795,
          "372": -1.6833219528198242,
          "373": -1.2735860347747803,
          "374": 3.3688173294067383,
          "375": -0.6140705943107605,
          "376": -0.32796236872673035,
          "377": 1.4998927116394043,
          "378": -0.43642041087150574,
          "379": -1.6411980390548706,
          "380": 1.4609205722808838,
          "381": -1.0469053983688354,
          "382": 0.10579870641231537,
          "383": -0.2346743792295456,
          "384": 0.3735823929309845,
          "385": -1.0886917114257812,
          "386": -1.7005995512008667,
          "387": 0.33357682824134827,
          "388": -0.8292206525802612,
          "389": -0.39834845066070557,
          "390": -0.927759051322937,
          "391": -3.0144879817962646,
          "392": -1.2798351049423218,
          "393": 0.9575040340423584,
          "394": -0.3595496714115143,
          "395": -0.16105787456035614,
          "396": 0.017941847443580627,
          "397": -1.4749614000320435,
          "398": 0.2684747278690338,
          "399": 3.156611442565918,
          "400": -1.3967163562774658,
          "401": 0.035164523869752884,
          "402": 1.5765820741653442,
          "403": -0.18698711693286896,
          "404": -1.6909297704696655,
          "405": 0.23556287586688995,
          "406": 1.7114454507827759,
          "407": 1.8182207345962524,
          "408": -0.7329317331314087,
          "409": -1.397804856300354,
          "410": 0.5396115183830261,
          "411": 0.8121904730796814,
          "412": 0.12940791249275208,
          "413": 1.5596287250518799,
          "414": -2.06119704246521,
          "415": -1.768949031829834,
          "416": 0.8116626143455505,
          "417": 1.4442089796066284,
          "418": -1.0246368646621704,
          "419": -1.6131590604782104,
          "420": -1.383957028388977,
          "421": -3.0393309593200684,
          "422": -0.9982836246490479,
          "423": -0.38262081146240234,
          "424": 1.4995462894439697,
          "425": -1.4511529207229614,
          "426": -1.9525115489959717,
          "427": -0.26106512546539307,
          "428": -2.350493907928467,
          "429": -2.962913751602173,
          "430": 1.3131961822509766,
          "431": -1.082090139389038,
          "432": 0.19696824252605438,
          "433": -0.24072839319705963,
          "434": 0.46609726548194885,
          "435": -0.9117281436920166,
          "436": -0.10360037535429001,
          "437": 1.4898868799209595,
          "438": -0.7108294367790222,
          "439": -2.126465082168579,
          "440": 0.7311980128288269,
          "441": 1.1437287330627441,
          "442": 0.027724802494049072,
          "443": -0.9455914497375488,
          "444": 0.7005081176757812,
          "445": 0.0024569241795688868,
          "446": 1.7504081726074219,
          "447": -0.18602922558784485,
          "448": 0.9020920395851135,
          "449": -1.1208529472351074,
          "450": 1.1700156927108765,
          "451": 1.8145744800567627,
          "452": 0.302846759557724,
          "453": -0.3749554455280304,
          "454": -0.2502465844154358,
          "455": 1.4090521335601807,
          "456": -0.24370510876178741,
          "457": -0.43528884649276733,
          "458": -0.8591492772102356,
          "459": -0.04656682163476944,
          "460": 2.0447654724121094,
          "461": 0.196575328707695,
          "462": 1.6377196311950684,
          "463": 0.7945204377174377,
          "464": 1.047118067741394,
          "465": 0.2805609405040741,
          "466": 1.6159101724624634,
          "467": 1.170086145401001,
          "468": -1.0565707683563232,
          "469": 0.8584163784980774,
          "470": -0.407928466796875,
          "471": 0.9666672348976135,
          "472": 1.346631407737732,
          "473": 0.3161396086215973,
          "474": -0.68155437707901,
          "475": -0.4505123794078827,
          "476": 2.1984572410583496,
          "477": 1.9487758874893188,
          "478": 2.4440431594848633,
          "479": 1.0100882053375244,
          "480": 1.0181729793548584,
          "481": 3.278977155685425,
          "482": 1.5667062997817993,
          "483": -0.8501548171043396,
          "484": -1.4089230298995972,
          "485": -0.3383411169052124,
          "486": -0.9677656888961792,
          "487": 2.299992799758911,
          "488": -0.7818587422370911,
          "489": -3.421379566192627,
          "490": 2.601785182952881,
          "491": 1.7275835275650024,
          "492": -0.9976810812950134,
          "493": -1.5084939002990723,
          "494": -0.52412348985672,
          "495": 1.3239532709121704,
          "496": 0.8751065731048584,
          "497": 0.06258919835090637,
          "498": 0.31927254796028137,
          "499": 2.09184193611145,
          "500": 0.06432265043258667,
          "501": 0.44673892855644226,
          "502": -3.5916197299957275,
          "503": -2.516915798187256,
          "504": 1.7574738264083862,
          "505": -0.7939525842666626,
          "506": -0.11881540715694427,
          "507": 0.15121731162071228,
          "508": 0.30571848154067993,
          "509": 0.3534633219242096,
          "510": 1.5659816265106201,
          "511": 1.0039122104644775,
          "512": -0.5605637431144714,
          "513": -1.3171048164367676,
          "514": -1.4454612731933594,
          "515": -1.652968168258667,
          "516": 1.5606780052185059,
          "517": -0.6860843300819397,
          "518": -3.085819959640503,
          "519": -1.5749657154083252,
          "520": -0.3126557171344757,
          "521": -0.7720934152603149,
          "522": 0.33163678646087646,
          "523": -0.8862598538398743,
          "524": -1.439263939857483,
          "525": 1.286198616027832,
          "526": 0.3167860209941864,
          "527": -0.8361565470695496,
          "528": -1.6370031833648682,
          "529": 1.0164356231689453,
          "530": 0.17994648218154907,
          "531": 0.6198346614837646,
          "532": -0.6806849241256714,
          "533": -2.0109596252441406,
          "534": 0.1324343979358673,
          "535": 0.26295801997184753,
          "536": 0.9982742071151733,
          "537": 2.687760591506958,
          "538": 0.9350917339324951,
          "539": -0.25368788838386536,
          "540": 1.0605616569519043,
          "541": 1.9110645055770874,
          "542": -1.3041056394577026,
          "543": -0.9293513298034668,
          "544": -1.2865897417068481,
          "545": -2.3411178588867188,
          "546": -0.36505016684532166,
          "547": 0.14235232770442963,
          "548": -0.22026705741882324,
          "549": -0.013173788785934448,
          "550": -0.7708004713058472,
          "551": 0.29340049624443054,
          "552": -1.5111452341079712,
          "553": -0.16549910604953766,
          "554": 0.5179140567779541,
          "555": -1.1673282384872437,
          "556": -0.04896657541394234,
          "557": 1.9804370403289795,
          "558": 0.5783217549324036,
          "559": 0.5159469246864319,
          "560": 0.14351220428943634,
          "561": -3.3063948154449463,
          "562": -0.3440623879432678,
          "563": 0.9400396943092346,
          "564": 0.27464035153388977,
          "565": -0.3876296281814575,
          "566": 0.6763507723808289,
          "567": 0.8238568305969238,
          "568": 0.5773574113845825,
          "569": 0.2910580635070801,
          "570": -1.9710243940353394,
          "571": 1.81576406955719,
          "572": 0.722075343132019,
          "573": 2.6880850791931152,
          "574": -0.8177523612976074,
          "575": 0.7269598245620728,
          "576": -0.6449744701385498,
          "577": 0.13452398777008057,
          "578": 2.4691452980041504,
          "579": -3.116149425506592,
          "580": 0.12283376604318619,
          "581": -0.38598302006721497,
          "582": 0.2167680710554123,
          "583": 0.20014281570911407,
          "584": -0.8269896507263184,
          "585": -2.471587896347046,
          "586": -1.0761957168579102,
          "587": -2.492889404296875,
          "588": 0.7686587572097778,
          "589": 0.7577771544456482,
          "590": 2.7028231620788574,
          "591": -0.02910354919731617,
          "592": -2.267254590988159,
          "593": 2.685469627380371,
          "594": 0.13639244437217712,
          "595": 1.5456660985946655,
          "596": -1.3264586925506592,
          "597": 1.514206051826477,
          "598": -0.6857755780220032,
          "599": 1.0926556587219238,
          "600": 1.5929335355758667,
          "601": 2.2033743858337402,
          "602": -0.964442253112793,
          "603": 1.7546478509902954,
          "604": -0.8409724831581116,
          "605": 1.9113715887069702,
          "606": -0.41541045904159546,
          "607": -0.5346225500106812,
          "608": 0.27111876010894775,
          "609": 0.657028079032898,
          "610": 0.1933988332748413,
          "611": 2.912907361984253,
          "612": -1.421115517616272,
          "613": -1.6416596174240112,
          "614": 1.7243378162384033,
          "615": 2.7706451416015625,
          "616": -0.32131150364875793,
          "617": 1.4657243490219116,
          "618": 0.8193286657333374,
          "619": 1.0007423162460327
        }
      },
      "inputHidden": {
        "rows": 20,
        "columns": 20,
        "weights": {
          "0": 0.9719243049621582,
          "1": 0.48670271039009094,
          "2": -1.9999196529388428,
          "3": 5.376992225646973,
          "4": -1.5977165699005127,
          "5": -0.5079916715621948,
          "6": 2.4519083499908447,
          "7": -0.43168801069259644,
          "8": -3.543256998062134,
          "9": -0.7193961143493652,
          "10": 0.5624394416809082,
          "11": -1.1396738290786743,
          "12": 2.9824929237365723,
          "13": 0.34406983852386475,
          "14": 0.32247889041900635,
          "15": -1.0360060930252075,
          "16": -3.5426723957061768,
          "17": -1.900394320487976,
          "18": 2.4210541248321533,
          "19": 1.3131656646728516,
          "20": 0.6493512988090515,
          "21": -0.7663866281509399,
          "22": -3.347874402999878,
          "23": -0.07678071409463882,
          "24": -2.537127733230591,
          "25": 2.7933881282806396,
          "26": -2.533669948577881,
          "27": -2.2726423740386963,
          "28": 2.5509908199310303,
          "29": -4.0747175216674805,
          "30": 1.0322604179382324,
          "31": 1.2840046882629395,
          "32": -4.136410713195801,
          "33": -0.731435239315033,
          "34": -1.5256916284561157,
          "35": 0.568827748298645,
          "36": 0.1799088716506958,
          "37": -2.031409740447998,
          "38": -2.204439640045166,
          "39": -0.1410413682460785,
          "40": -1.1356405019760132,
          "41": 2.1312007904052734,
          "42": -0.030602997168898582,
          "43": 0.9716382622718811,
          "44": 0.6841291189193726,
          "45": -0.5963558554649353,
          "46": -0.3612884283065796,
          "47": 3.4944941997528076,
          "48": 0.10635880380868912,
          "49": -0.6295808553695679,
          "50": 0.7586778402328491,
          "51": 0.0696815550327301,
          "52": 2.314753293991089,
          "53": -0.7216240763664246,
          "54": 3.4591846466064453,
          "55": -0.04831525683403015,
          "56": -0.5903677940368652,
          "57": 1.4246046543121338,
          "58": 0.6928735971450806,
          "59": 0.38949471712112427,
          "60": -2.8134946823120117,
          "61": -1.302473783493042,
          "62": -2.451204776763916,
          "63": 1.2344205379486084,
          "64": -3.6716930866241455,
          "65": 4.588522434234619,
          "66": -4.724536895751953,
          "67": -0.8910093307495117,
          "68": 9.28591251373291,
          "69": -0.3314518332481384,
          "70": 3.191577911376953,
          "71": -3.039213180541992,
          "72": 0.19908304512500763,
          "73": -4.818262100219727,
          "74": 1.8384230136871338,
          "75": 0.441504567861557,
          "76": -1.643831729888916,
          "77": -2.008455276489258,
          "78": -2.549278497695923,
          "79": 0.05268125236034393,
          "80": 2.2266366481781006,
          "81": 3.668335437774658,
          "82": -3.8655030727386475,
          "83": -2.659876585006714,
          "84": -1.1724598407745361,
          "85": 1.1162704229354858,
          "86": 1.1806503534317017,
          "87": -1.8023895025253296,
          "88": -2.7377500534057617,
          "89": -2.2293472290039062,
          "90": 1.7081336975097656,
          "91": -0.30502548813819885,
          "92": -3.522522449493408,
          "93": 0.4659838080406189,
          "94": -0.22164267301559448,
          "95": 1.335054874420166,
          "96": -0.21707163751125336,
          "97": -3.256970167160034,
          "98": -0.5339338183403015,
          "99": -2.8580737113952637,
          "100": 1.0692769289016724,
          "101": -1.2891665697097778,
          "102": -2.7807915210723877,
          "103": 0.7834172248840332,
          "104": -1.1103254556655884,
          "105": 2.2278661727905273,
          "106": -1.0830885171890259,
          "107": -2.1835176944732666,
          "108": 4.987955570220947,
          "109": -2.8202695846557617,
          "110": 2.8133933544158936,
          "111": -0.926153302192688,
          "112": 1.797267198562622,
          "113": -2.1513326168060303,
          "114": -2.516174793243408,
          "115": 0.1895473748445511,
          "116": -3.2194881439208984,
          "117": -2.8677215576171875,
          "118": -3.7662718296051025,
          "119": -1.7564194202423096,
          "120": -0.8667961955070496,
          "121": -1.135903000831604,
          "122": 3.543189764022827,
          "123": 0.30478379130363464,
          "124": 1.472782015800476,
          "125": -1.262995719909668,
          "126": -2.712651014328003,
          "127": -3.4134790897369385,
          "128": -2.4057388305664062,
          "129": -0.2966846227645874,
          "130": 3.0007851123809814,
          "131": -5.650107383728027,
          "132": -2.8827712535858154,
          "133": -2.5575873851776123,
          "134": 1.4691731929779053,
          "135": -0.703880786895752,
          "136": -0.061894550919532776,
          "137": -0.32009807229042053,
          "138": -2.230334758758545,
          "139": -2.818962574005127,
          "140": 0.6252822279930115,
          "141": 1.5691595077514648,
          "142": 2.1143951416015625,
          "143": 3.931622266769409,
          "144": 1.0067777633666992,
          "145": -1.2826155424118042,
          "146": -2.4949684143066406,
          "147": 1.623381495475769,
          "148": -4.0129714012146,
          "149": -0.050758443772792816,
          "150": -1.4888114929199219,
          "151": 1.5311346054077148,
          "152": -1.3496086597442627,
          "153": 3.9473490715026855,
          "154": 2.3977198600769043,
          "155": -1.405635118484497,
          "156": 0.4381895363330841,
          "157": 1.8358113765716553,
          "158": 2.329172134399414,
          "159": 2.4154374599456787,
          "160": -0.5066885948181152,
          "161": -1.820350170135498,
          "162": -1.943606972694397,
          "163": -1.7142817974090576,
          "164": 0.11849110573530197,
          "165": 1.35300874710083,
          "166": 1.3665050268173218,
          "167": -2.660198450088501,
          "168": 3.534367322921753,
          "169": -2.1888718605041504,
          "170": 0.6666984558105469,
          "171": -0.8505378365516663,
          "172": 1.0955227613449097,
          "173": -0.9981945157051086,
          "174": -1.039576530456543,
          "175": 5.162016868591309,
          "176": -0.9247440099716187,
          "177": -1.4601768255233765,
          "178": -3.3563449382781982,
          "179": -0.40569496154785156,
          "180": 3.0223217010498047,
          "181": -0.5128557682037354,
          "182": -3.159576654434204,
          "183": -4.296736717224121,
          "184": -1.8159489631652832,
          "185": 1.2040804624557495,
          "186": 0.513264536857605,
          "187": -1.420625925064087,
          "188": 5.62676477432251,
          "189": -2.6555776596069336,
          "190": 4.219357013702393,
          "191": 1.662838339805603,
          "192": -3.108811378479004,
          "193": -2.98299503326416,
          "194": -1.777381420135498,
          "195": 0.3656894862651825,
          "196": -1.495421290397644,
          "197": -1.8449662923812866,
          "198": 1.7942544221878052,
          "199": 0.39112821221351624,
          "200": -5.665594577789307,
          "201": 3.1520423889160156,
          "202": -1.8699326515197754,
          "203": -3.9826462268829346,
          "204": 2.555983543395996,
          "205": 2.5449869632720947,
          "206": -0.21862821280956268,
          "207": -0.33745887875556946,
          "208": -0.044626787304878235,
          "209": -3.2239279747009277,
          "210": 5.389863967895508,
          "211": 2.8228647708892822,
          "212": 4.122549533843994,
          "213": -0.9683573246002197,
          "214": 2.8450207710266113,
          "215": 1.352879524230957,
          "216": -2.0604465007781982,
          "217": -0.45929014682769775,
          "218": 3.7455742359161377,
          "219": 1.946715235710144,
          "220": 0.6694638729095459,
          "221": -3.7450807094573975,
          "222": 3.8990447521209717,
          "223": -0.46638423204421997,
          "224": 0.282157838344574,
          "225": -4.528936386108398,
          "226": -0.5934781432151794,
          "227": 3.1581532955169678,
          "228": -1.9573742151260376,
          "229": 4.271294116973877,
          "230": 0.2860874831676483,
          "231": -0.26837533712387085,
          "232": 0.5990614891052246,
          "233": 2.4923458099365234,
          "234": -1.9891421794891357,
          "235": 2.405164957046509,
          "236": 1.0576554536819458,
          "237": 0.789044976234436,
          "238": -2.190016508102417,
          "239": -0.5852382183074951,
          "240": -2.687929630279541,
          "241": 1.8053576946258545,
          "242": -1.0294984579086304,
          "243": -2.444389581680298,
          "244": 0.11610724776983261,
          "245": -1.6595529317855835,
          "246": 0.6802433133125305,
          "247": -1.2525205612182617,
          "248": 0.09406433254480362,
          "249": -3.292276382446289,
          "250": 3.0111162662506104,
          "251": -0.1370510458946228,
          "252": 0.44952183961868286,
          "253": -1.194744348526001,
          "254": 0.6096611618995667,
          "255": -0.10788772255182266,
          "256": -3.141929864883423,
          "257": -1.9005948305130005,
          "258": 0.9475346207618713,
          "259": 0.975700318813324,
          "260": 2.2125437259674072,
          "261": -3.966259479522705,
          "262": -0.5452044010162354,
          "263": 0.15715153515338898,
          "264": -1.6351300477981567,
          "265": 1.4108120203018188,
          "266": -1.6895586252212524,
          "267": -2.262367010116577,
          "268": -1.0147184133529663,
          "269": -0.5381428003311157,
          "270": 1.8920060396194458,
          "271": 0.3100734055042267,
          "272": -3.2935218811035156,
          "273": 0.010755673050880432,
          "274": -5.537588119506836,
          "275": 0.030550047755241394,
          "276": -1.8648943901062012,
          "277": 0.45987269282341003,
          "278": -1.0739738941192627,
          "279": -2.2836856842041016,
          "280": 5.027294635772705,
          "281": 3.4353513717651367,
          "282": -1.9290924072265625,
          "283": -0.7178614139556885,
          "284": -2.500619411468506,
          "285": 0.3230522572994232,
          "286": 2.2811362743377686,
          "287": -1.4966107606887817,
          "288": 3.1258111000061035,
          "289": -0.5600847005844116,
          "290": 3.069110870361328,
          "291": 2.801381826400757,
          "292": -5.634667873382568,
          "293": -2.3499205112457275,
          "294": 5.526101112365723,
          "295": -3.418117046356201,
          "296": -2.7283811569213867,
          "297": -1.2455413341522217,
          "298": 3.5398364067077637,
          "299": 3.861936092376709,
          "300": 4.781378746032715,
          "301": 0.2399340718984604,
          "302": -0.32366764545440674,
          "303": 1.383388876914978,
          "304": 0.20834428071975708,
          "305": -0.3180972933769226,
          "306": 1.5091460943222046,
          "307": 0.1282843053340912,
          "308": 1.5207089185714722,
          "309": 0.8075284361839294,
          "310": -0.5517556071281433,
          "311": 0.9720982313156128,
          "312": 0.9103187918663025,
          "313": -0.9359286427497864,
          "314": -1.0603073835372925,
          "315": -0.06376028805971146,
          "316": 2.483851671218872,
          "317": 0.04683641344308853,
          "318": 1.4557267427444458,
          "319": 1.1759597063064575,
          "320": 3.026050090789795,
          "321": 0.45686620473861694,
          "322": -0.9596288800239563,
          "323": -0.46645447611808777,
          "324": -1.0191400051116943,
          "325": 1.2528362274169922,
          "326": -0.6307982206344604,
          "327": -1.6650832891464233,
          "328": 1.0957082509994507,
          "329": -0.38910242915153503,
          "330": 1.3136649131774902,
          "331": 0.8116414546966553,
          "332": -1.4199604988098145,
          "333": -0.04578856751322746,
          "334": 0.22571592032909393,
          "335": -1.3198673725128174,
          "336": -1.8008662462234497,
          "337": -1.6484557390213013,
          "338": 3.5636212825775146,
          "339": 1.831931471824646,
          "340": -0.8126752376556396,
          "341": 2.4931857585906982,
          "342": -1.1974352598190308,
          "343": -2.153848171234131,
          "344": -0.01602214202284813,
          "345": -0.052355676889419556,
          "346": 3.3550333976745605,
          "347": 1.038280963897705,
          "348": -1.0965043306350708,
          "349": 2.5513734817504883,
          "350": 2.2040462493896484,
          "351": 2.79952073097229,
          "352": -2.2354373931884766,
          "353": -0.5187634825706482,
          "354": 3.633273124694824,
          "355": -3.3377976417541504,
          "356": -0.19205468893051147,
          "357": 1.1173712015151978,
          "358": 3.643282890319824,
          "359": 3.0496675968170166,
          "360": -2.177577257156372,
          "361": 0.44795742630958557,
          "362": -0.2255142629146576,
          "363": -1.7151398658752441,
          "364": 1.0635814666748047,
          "365": 2.472456455230713,
          "366": -2.9573018550872803,
          "367": -1.5969446897506714,
          "368": 0.18809548020362854,
          "369": -2.4257404804229736,
          "370": 3.4189534187316895,
          "371": -2.351141929626465,
          "372": 2.890799045562744,
          "373": -4.299455642700195,
          "374": 0.7063690423965454,
          "375": 1.5781700611114502,
          "376": -0.3580755293369293,
          "377": -2.04009747505188,
          "378": -0.6621612310409546,
          "379": -1.1933550834655762,
          "380": -1.0860728025436401,
          "381": 2.583144187927246,
          "382": -2.5712337493896484,
          "383": -0.680454671382904,
          "384": -0.15251940488815308,
          "385": -0.013386955484747887,
          "386": -2.0557143688201904,
          "387": -1.6966720819473267,
          "388": 1.9139471054077148,
          "389": -2.45902419090271,
          "390": 2.861558437347412,
          "391": 2.950470447540283,
          "392": -0.47534000873565674,
          "393": -1.7380601167678833,
          "394": -1.2855234146118164,
          "395": 1.7696300745010376,
          "396": -1.8026971817016602,
          "397": -3.4123332500457764,
          "398": 1.5287470817565918,
          "399": 0.0680563747882843
        }
      },
      "inputBias": {
        "rows": 20,
        "columns": 1,
        "weights": {
          "0": -2.3967995643615723,
          "1": -1.137944221496582,
          "2": -0.36872902512550354,
          "3": -2.3424389362335205,
          "4": -1.7571650743484497,
          "5": -1.8865351676940918,
          "6": -0.7126614451408386,
          "7": -0.9151450991630554,
          "8": -0.2376837432384491,
          "9": -0.9472386240959167,
          "10": -0.7276310324668884,
          "11": -1.6399353742599487,
          "12": -2.4493439197540283,
          "13": -2.6415281295776367,
          "14": -1.1316304206848145,
          "15": -0.5117270350456238,
          "16": -0.9120185375213623,
          "17": -0.5138918161392212,
          "18": -1.4839404821395874,
          "19": -0.8265931010246277
        }
      },
      "forgetMatrix": {
        "rows": 20,
        "columns": 31,
        "weights": {
          "0": 0.6239234209060669,
          "1": 2.6478335857391357,
          "2": 1.6049851179122925,
          "3": -0.9503452777862549,
          "4": 1.2174532413482666,
          "5": 1.2593716382980347,
          "6": 1.324411392211914,
          "7": -1.3871839046478271,
          "8": 1.4064065217971802,
          "9": 2.0786592960357666,
          "10": 1.8248651027679443,
          "11": 0.47855278849601746,
          "12": 1.8519037961959839,
          "13": 0.7701639533042908,
          "14": 1.969667673110962,
          "15": -0.43943169713020325,
          "16": 1.1976454257965088,
          "17": -0.4832088351249695,
          "18": 0.20730529725551605,
          "19": -0.9030299782752991,
          "20": 0.6157670021057129,
          "21": 1.7904936075210571,
          "22": 1.4973652362823486,
          "23": 0.2633392810821533,
          "24": -0.6614142656326294,
          "25": 0.44658753275871277,
          "26": 0.9201017022132874,
          "27": -0.558526337146759,
          "28": 0.8994830846786499,
          "29": 1.0423191785812378,
          "30": 1.5137115716934204,
          "31": -0.22772672772407532,
          "32": -1.2329038381576538,
          "33": -1.1054285764694214,
          "34": 0.41710904240608215,
          "35": 1.1071611642837524,
          "36": -2.40897274017334,
          "37": -0.48079827427864075,
          "38": 0.7128890752792358,
          "39": -0.6808510422706604,
          "40": -0.46570175886154175,
          "41": -0.27655187249183655,
          "42": -3.241943597793579,
          "43": -1.4728525876998901,
          "44": -1.0359140634536743,
          "45": 0.1403263658285141,
          "46": -0.9759904146194458,
          "47": -1.908815622329712,
          "48": -1.7621934413909912,
          "49": -0.6807350516319275,
          "50": 1.0421735048294067,
          "51": -0.8557068705558777,
          "52": 1.376847267150879,
          "53": -0.6113845705986023,
          "54": 0.22119949758052826,
          "55": 0.803290605545044,
          "56": -3.8705265522003174,
          "57": -2.888007879257202,
          "58": 1.5107991695404053,
          "59": -0.7966751456260681,
          "60": 2.283884286880493,
          "61": -1.1742548942565918,
          "62": -0.6578494906425476,
          "63": -2.723492383956909,
          "64": 1.0787395238876343,
          "65": 1.3948326110839844,
          "66": -3.582420587539673,
          "67": 0.07967045903205872,
          "68": -4.254898548126221,
          "69": -1.312382698059082,
          "70": 0.3097553551197052,
          "71": 0.1576441526412964,
          "72": -0.9507393836975098,
          "73": -1.0308737754821777,
          "74": -1.5635360479354858,
          "75": 1.4795280694961548,
          "76": -0.20739002525806427,
          "77": 0.6726953387260437,
          "78": -3.425112247467041,
          "79": -0.3306308686733246,
          "80": -1.5910941362380981,
          "81": -0.10326113551855087,
          "82": 1.9238225221633911,
          "83": -1.9007651805877686,
          "84": -0.9074514508247375,
          "85": -1.0096677541732788,
          "86": -1.819157361984253,
          "87": -1.870766043663025,
          "88": -0.28872519731521606,
          "89": -0.7346280813217163,
          "90": -2.4496312141418457,
          "91": -1.3619085550308228,
          "92": 0.19934780895709991,
          "93": -1.4143447875976562,
          "94": 1.404798150062561,
          "95": -0.7759688496589661,
          "96": -5.630570411682129,
          "97": -1.5482792854309082,
          "98": 1.591575026512146,
          "99": 0.6051352620124817,
          "100": 2.0006392002105713,
          "101": -0.808844804763794,
          "102": -0.5553584098815918,
          "103": 0.4882752597332001,
          "104": 2.3764991760253906,
          "105": -1.9522151947021484,
          "106": -2.2081186771392822,
          "107": -2.564743757247925,
          "108": -1.7191623449325562,
          "109": -2.163252353668213,
          "110": 0.15759214758872986,
          "111": -2.846846580505371,
          "112": 0.6339502334594727,
          "113": -1.723113775253296,
          "114": -1.6807974576950073,
          "115": 2.1484460830688477,
          "116": -1.713734745979309,
          "117": 0.8548044562339783,
          "118": -0.47751203179359436,
          "119": -3.0356040000915527,
          "120": -0.7645707726478577,
          "121": -0.603584885597229,
          "122": -0.47148001194000244,
          "123": 1.0885456800460815,
          "124": -2.1729576587677,
          "125": -0.9451045989990234,
          "126": -2.3171005249023438,
          "127": -0.04209112375974655,
          "128": -2.02103328704834,
          "129": -0.35474804043769836,
          "130": -1.6434398889541626,
          "131": 2.1931822299957275,
          "132": -0.8734359741210938,
          "133": 1.3919683694839478,
          "134": 3.4642138481140137,
          "135": -0.1347915232181549,
          "136": -0.5830003619194031,
          "137": 1.7927427291870117,
          "138": 2.2835564613342285,
          "139": -2.397418737411499,
          "140": -2.4286041259765625,
          "141": -1.6654722690582275,
          "142": -1.4967410564422607,
          "143": 0.4368336498737335,
          "144": -2.2545254230499268,
          "145": 0.17555688321590424,
          "146": -1.4568240642547607,
          "147": 0.15497241914272308,
          "148": 0.4957513213157654,
          "149": 0.03575465455651283,
          "150": -0.29468074440956116,
          "151": -0.643017053604126,
          "152": -0.5614762306213379,
          "153": -0.8805007338523865,
          "154": 1.4535632133483887,
          "155": 1.175436019897461,
          "156": -0.9517022967338562,
          "157": 0.4711267650127411,
          "158": -2.3607308864593506,
          "159": 1.5662068128585815,
          "160": -0.2580750584602356,
          "161": -0.3471449911594391,
          "162": -1.3433290719985962,
          "163": 0.33208829164505005,
          "164": -0.6100192666053772,
          "165": -0.50511634349823,
          "166": 2.5743324756622314,
          "167": 1.5654367208480835,
          "168": -0.18812496960163116,
          "169": 0.7889043688774109,
          "170": -2.0086069107055664,
          "171": 0.19087740778923035,
          "172": -1.7375391721725464,
          "173": -0.15885749459266663,
          "174": -0.34446775913238525,
          "175": 1.5051907300949097,
          "176": 0.045125603675842285,
          "177": 0.877798855304718,
          "178": -2.50407075881958,
          "179": -2.2058258056640625,
          "180": 0.20924115180969238,
          "181": -0.8027556538581848,
          "182": -0.20966899394989014,
          "183": 0.06187359243631363,
          "184": 0.7180418372154236,
          "185": 0.6501404643058777,
          "186": -0.45541954040527344,
          "187": 0.14520449936389923,
          "188": 1.7697677612304688,
          "189": -1.1965713500976562,
          "190": -0.8423870205879211,
          "191": 3.6378276348114014,
          "192": -0.45849958062171936,
          "193": -1.9035954475402832,
          "194": 0.7186965346336365,
          "195": 0.7757077217102051,
          "196": 1.0480703115463257,
          "197": 1.0793771743774414,
          "198": -1.3143469095230103,
          "199": -0.1429871767759323,
          "200": -0.7181740403175354,
          "201": -1.6763631105422974,
          "202": -1.082736611366272,
          "203": -0.19502173364162445,
          "204": -1.08346426486969,
          "205": -2.6909706592559814,
          "206": -1.2834123373031616,
          "207": 0.7903398275375366,
          "208": 0.508313000202179,
          "209": -1.2893030643463135,
          "210": 0.18033719062805176,
          "211": 0.2549423277378082,
          "212": 0.3982570767402649,
          "213": 0.03196105360984802,
          "214": -0.6905781030654907,
          "215": -0.12649548053741455,
          "216": 3.6796951293945312,
          "217": -3.060474395751953,
          "218": -1.1098488569259644,
          "219": 0.018092427402734756,
          "220": 0.04834494739770889,
          "221": 0.9336345791816711,
          "222": 0.13995717465877533,
          "223": -0.9019379019737244,
          "224": 0.3826989531517029,
          "225": -0.15107746422290802,
          "226": -1.4993213415145874,
          "227": 1.4279667139053345,
          "228": -1.9886090755462646,
          "229": 0.08402422815561295,
          "230": 1.0107046365737915,
          "231": 1.4148552417755127,
          "232": -1.0974568128585815,
          "233": -0.9291524887084961,
          "234": -1.8255548477172852,
          "235": -1.5965112447738647,
          "236": 0.31180688738822937,
          "237": -1.0993192195892334,
          "238": 1.297542691230774,
          "239": -1.501219630241394,
          "240": -0.950499951839447,
          "241": 0.23128938674926758,
          "242": -3.7593512535095215,
          "243": -1.6487582921981812,
          "244": 2.718262195587158,
          "245": -1.5456907749176025,
          "246": 4.136330604553223,
          "247": 0.5474466681480408,
          "248": 1.0754448175430298,
          "249": 2.2388651371002197,
          "250": -0.583010733127594,
          "251": -0.5804930329322815,
          "252": -0.532060980796814,
          "253": 0.5558361411094666,
          "254": 0.5989078879356384,
          "255": 0.17263753712177277,
          "256": 0.5796375274658203,
          "257": -0.22078222036361694,
          "258": -0.058973219245672226,
          "259": 1.0507782697677612,
          "260": 0.8658345937728882,
          "261": 0.3810923397541046,
          "262": -1.4949711561203003,
          "263": -0.30151695013046265,
          "264": 0.6109198927879333,
          "265": 2.639700174331665,
          "266": 1.089070200920105,
          "267": -0.6387244462966919,
          "268": -1.3632370233535767,
          "269": -0.4348132610321045,
          "270": 0.1985466480255127,
          "271": -0.3107730746269226,
          "272": 2.995943069458008,
          "273": 0.37907320261001587,
          "274": 0.9113491177558899,
          "275": 0.6625814437866211,
          "276": 0.3281674385070801,
          "277": -0.5752728581428528,
          "278": 1.2622900009155273,
          "279": 1.6991560459136963,
          "280": 1.8204082250595093,
          "281": -0.41556477546691895,
          "282": -2.1949915885925293,
          "283": 1.2676432132720947,
          "284": 0.2801732122898102,
          "285": 1.6146588325500488,
          "286": -0.38317933678627014,
          "287": 0.34504222869873047,
          "288": 2.3179519176483154,
          "289": 0.22069042921066284,
          "290": 0.031543269753456116,
          "291": -0.7838155627250671,
          "292": -1.6990139484405518,
          "293": -3.9224557876586914,
          "294": 0.6768614649772644,
          "295": 0.6373305320739746,
          "296": 1.0088902711868286,
          "297": 0.9115088582038879,
          "298": -0.02263448014855385,
          "299": 0.9914116859436035,
          "300": -1.1919575929641724,
          "301": 0.33135920763015747,
          "302": 0.9127552509307861,
          "303": 0.10406534373760223,
          "304": -0.025849202647805214,
          "305": -0.3420487642288208,
          "306": -0.6611719131469727,
          "307": -0.35064974427223206,
          "308": -1.0477988719940186,
          "309": 0.27644801139831543,
          "310": -0.9635415077209473,
          "311": -0.4282909333705902,
          "312": 0.12585456669330597,
          "313": 0.020083555951714516,
          "314": 2.3415470123291016,
          "315": 1.464998722076416,
          "316": -0.8967440724372864,
          "317": -1.6197282075881958,
          "318": 2.6369731426239014,
          "319": -1.2109326124191284,
          "320": 0.5259459614753723,
          "321": -0.9257391095161438,
          "322": -0.523005485534668,
          "323": 0.7349867224693298,
          "324": 0.9619735479354858,
          "325": -1.0867348909378052,
          "326": 0.06921883672475815,
          "327": -2.675252676010132,
          "328": -0.5387336015701294,
          "329": -0.4354574680328369,
          "330": -0.2583404779434204,
          "331": -0.15590044856071472,
          "332": -0.12351863086223602,
          "333": 0.07628218829631805,
          "334": -0.35875311493873596,
          "335": -0.20291173458099365,
          "336": -1.0420500040054321,
          "337": 1.3292192220687866,
          "338": -0.9801809787750244,
          "339": 1.4629971981048584,
          "340": 1.0086194276809692,
          "341": 2.3811001777648926,
          "342": -1.62643301486969,
          "343": 0.7691381573677063,
          "344": 0.42875057458877563,
          "345": 1.7224282026290894,
          "346": -3.4190094470977783,
          "347": 0.6491897106170654,
          "348": 0.7439208030700684,
          "349": 0.03658697009086609,
          "350": -0.007970673963427544,
          "351": 1.467720627784729,
          "352": 2.817003011703491,
          "353": 2.4088897705078125,
          "354": -0.22562600672245026,
          "355": 0.8565797209739685,
          "356": -0.08136431127786636,
          "357": 2.529101848602295,
          "358": -1.1452642679214478,
          "359": 0.978023886680603,
          "360": 1.6871974468231201,
          "361": 2.018153190612793,
          "362": 0.5611569881439209,
          "363": 1.3509104251861572,
          "364": -0.24366424977779388,
          "365": -2.0973949432373047,
          "366": 2.9266462326049805,
          "367": 0.41134950518608093,
          "368": -1.4155980348587036,
          "369": -0.6627784371376038,
          "370": 0.3298652470111847,
          "371": -0.28500914573669434,
          "372": 3.0254933834075928,
          "373": 0.7190245985984802,
          "374": 0.15528017282485962,
          "375": -2.549382209777832,
          "376": 0.6434431672096252,
          "377": -0.7868050336837769,
          "378": 2.337228298187256,
          "379": 0.31580743193626404,
          "380": 0.1308646947145462,
          "381": 4.173025131225586,
          "382": 2.124195098876953,
          "383": -0.662519633769989,
          "384": 1.085648536682129,
          "385": -1.6180211305618286,
          "386": 0.8958516716957092,
          "387": -0.9805225729942322,
          "388": 0.7262682318687439,
          "389": 1.1180964708328247,
          "390": 0.9491124749183655,
          "391": 0.5740106701850891,
          "392": 1.3033411502838135,
          "393": -1.6638624668121338,
          "394": -1.3804776668548584,
          "395": 0.47203877568244934,
          "396": -1.2797800302505493,
          "397": -0.1933256983757019,
          "398": 3.0043392181396484,
          "399": -1.2369701862335205,
          "400": 1.690409541130066,
          "401": -0.6147796511650085,
          "402": 0.2402479201555252,
          "403": -1.1920101642608643,
          "404": -0.4674232304096222,
          "405": 0.1198047623038292,
          "406": 0.6711309552192688,
          "407": 1.295688271522522,
          "408": -0.6386531591415405,
          "409": 1.2828617095947266,
          "410": 0.04261285066604614,
          "411": 1.6888936758041382,
          "412": -1.0305122137069702,
          "413": -0.23760218918323517,
          "414": 1.8884550333023071,
          "415": 4.734830856323242,
          "416": 5.941586971282959,
          "417": 0.566500723361969,
          "418": 0.9521340131759644,
          "419": 4.022968292236328,
          "420": -1.0371558666229248,
          "421": -0.1530732959508896,
          "422": 0.4279468059539795,
          "423": 0.3335198760032654,
          "424": -0.33539021015167236,
          "425": 0.804864227771759,
          "426": 0.5065321326255798,
          "427": -1.527047038078308,
          "428": 0.02957037277519703,
          "429": 1.5832186937332153,
          "430": 1.8202143907546997,
          "431": 0.7944378852844238,
          "432": 2.8996078968048096,
          "433": -0.7534856200218201,
          "434": -1.9368493556976318,
          "435": 0.10497283935546875,
          "436": -5.051891326904297,
          "437": 0.8798327445983887,
          "438": -0.3007822036743164,
          "439": -0.3059338331222534,
          "440": 0.9302421808242798,
          "441": 2.706784725189209,
          "442": -3.6391184329986572,
          "443": -0.7699524164199829,
          "444": -1.3892199993133545,
          "445": 0.650029182434082,
          "446": 0.00023181777214631438,
          "447": -2.447232723236084,
          "448": -1.8338202238082886,
          "449": -0.5010212659835815,
          "450": 0.8207103610038757,
          "451": -0.010070817545056343,
          "452": 0.48969829082489014,
          "453": 0.8572534322738647,
          "454": -1.9016388654708862,
          "455": 1.2675822973251343,
          "456": 0.08871910721063614,
          "457": 1.2546801567077637,
          "458": 0.7871200442314148,
          "459": -0.4709247946739197,
          "460": -0.8197991847991943,
          "461": 1.4599701166152954,
          "462": -0.2414410412311554,
          "463": -0.7569264769554138,
          "464": -1.8721898794174194,
          "465": 0.27274855971336365,
          "466": 0.43810316920280457,
          "467": 0.6461849212646484,
          "468": 0.7314053177833557,
          "469": 0.9686055779457092,
          "470": 0.637987494468689,
          "471": 2.022975206375122,
          "472": 0.7747257351875305,
          "473": -1.5056178569793701,
          "474": -1.8609870672225952,
          "475": 0.6447425484657288,
          "476": -1.072074055671692,
          "477": 1.7566163539886475,
          "478": 2.059105157852173,
          "479": 0.8056119680404663,
          "480": 0.5776403546333313,
          "481": 3.354351282119751,
          "482": 1.0777716636657715,
          "483": 0.5366986989974976,
          "484": -0.6358956098556519,
          "485": 0.27207231521606445,
          "486": 1.1015645265579224,
          "487": 1.249648094177246,
          "488": -0.26126134395599365,
          "489": 0.19605249166488647,
          "490": 0.3126227855682373,
          "491": 1.4199875593185425,
          "492": 0.7614724040031433,
          "493": 0.44600850343704224,
          "494": -0.5675382614135742,
          "495": -1.2928539514541626,
          "496": 2.126112461090088,
          "497": -0.5285407304763794,
          "498": -0.7453676462173462,
          "499": -1.4756104946136475,
          "500": -0.029954953119158745,
          "501": 0.8124198913574219,
          "502": -1.4089436531066895,
          "503": -1.5518474578857422,
          "504": 0.48453161120414734,
          "505": 2.365246057510376,
          "506": 1.251176118850708,
          "507": -2.2969608306884766,
          "508": -1.0350825786590576,
          "509": 1.3896067142486572,
          "510": 0.35355156660079956,
          "511": -1.2124446630477905,
          "512": -1.343644618988037,
          "513": -1.209018588066101,
          "514": 0.18336980044841766,
          "515": -1.9667847156524658,
          "516": 0.5406873822212219,
          "517": -1.3712254762649536,
          "518": -0.33401650190353394,
          "519": -2.500075578689575,
          "520": -0.4072844684123993,
          "521": -3.0686235427856445,
          "522": 0.8032962679862976,
          "523": -0.7870792746543884,
          "524": -1.2208595275878906,
          "525": -0.17075634002685547,
          "526": 2.083447217941284,
          "527": -3.6293563842773438,
          "528": -0.6606137752532959,
          "529": -0.7520748376846313,
          "530": -1.8488729000091553,
          "531": 0.017071276903152466,
          "532": 0.11006078869104385,
          "533": -2.3055965900421143,
          "534": -0.19207164645195007,
          "535": 2.266711711883545,
          "536": 0.1445360779762268,
          "537": -1.1813725233078003,
          "538": 0.2888367176055908,
          "539": -0.5858432650566101,
          "540": 0.40080615878105164,
          "541": -0.16984513401985168,
          "542": -0.4498099088668823,
          "543": -3.0753421783447266,
          "544": -3.3021903038024902,
          "545": 0.04315199702978134,
          "546": 0.9625542163848877,
          "547": -0.4851650297641754,
          "548": 1.3780810832977295,
          "549": -0.5997049808502197,
          "550": 0.6415649056434631,
          "551": 1.831193447113037,
          "552": -0.9350734949111938,
          "553": -2.876136302947998,
          "554": 0.7011298537254333,
          "555": -1.433064579963684,
          "556": 1.1636908054351807,
          "557": -0.6263943910598755,
          "558": -0.8427892327308655,
          "559": -0.9996877908706665,
          "560": 3.8459200859069824,
          "561": 1.0566468238830566,
          "562": -0.39401698112487793,
          "563": 0.8728641271591187,
          "564": -1.8191198110580444,
          "565": -1.650633692741394,
          "566": 0.16799183189868927,
          "567": 0.6336252689361572,
          "568": 2.6607537269592285,
          "569": -0.6432073712348938,
          "570": -0.7401089668273926,
          "571": 0.5624113082885742,
          "572": 2.2380895614624023,
          "573": -0.16670577228069305,
          "574": -0.42994746565818787,
          "575": -1.6021208763122559,
          "576": -0.7481870651245117,
          "577": -2.4616355895996094,
          "578": 0.4202779531478882,
          "579": -0.8882039785385132,
          "580": -0.1792006641626358,
          "581": 1.0649527311325073,
          "582": 0.5364953875541687,
          "583": -0.8691182732582092,
          "584": 0.287448912858963,
          "585": -0.45755988359451294,
          "586": 0.5037935376167297,
          "587": -0.8717389106750488,
          "588": 3.239039659500122,
          "589": 0.10169821232557297,
          "590": 0.10850405693054199,
          "591": -0.30888131260871887,
          "592": -0.5383902192115784,
          "593": 0.16031044721603394,
          "594": -0.7007152438163757,
          "595": 0.23340480029582977,
          "596": -1.4661908149719238,
          "597": -0.6127853989601135,
          "598": -1.3815081119537354,
          "599": -2.7291877269744873,
          "600": -0.7450520396232605,
          "601": -0.8507729172706604,
          "602": -2.902233839035034,
          "603": -3.383880853652954,
          "604": 1.421752691268921,
          "605": -0.3275083303451538,
          "606": 0.676497220993042,
          "607": -0.1125074028968811,
          "608": -0.3369244933128357,
          "609": -1.9872101545333862,
          "610": 0.8950361609458923,
          "611": 1.5609045028686523,
          "612": 0.38472896814346313,
          "613": 1.5399513244628906,
          "614": 1.3858474493026733,
          "615": -2.2248315811157227,
          "616": 1.0898500680923462,
          "617": -0.5824494361877441,
          "618": 1.5466761589050293,
          "619": 0.2101442664861679
        }
      },
      "forgetHidden": {
        "rows": 20,
        "columns": 20,
        "weights": {
          "0": -3.321068286895752,
          "1": -0.7367660999298096,
          "2": 0.6354967951774597,
          "3": -0.1917518824338913,
          "4": 0.007430455181747675,
          "5": -0.6685886979103088,
          "6": -2.1709625720977783,
          "7": -0.22976629436016083,
          "8": -2.578850030899048,
          "9": -0.6783449649810791,
          "10": 0.8722466826438904,
          "11": -5.17392635345459,
          "12": 0.5536707043647766,
          "13": 0.8226549029350281,
          "14": -1.0324275493621826,
          "15": -0.8012184500694275,
          "16": 2.7317678928375244,
          "17": 1.6609543561935425,
          "18": -2.331731081008911,
          "19": 2.086085319519043,
          "20": -1.8879841566085815,
          "21": -4.639676094055176,
          "22": 2.371774435043335,
          "23": -0.7627553939819336,
          "24": 2.308837890625,
          "25": -0.0007225512526929379,
          "26": 0.7042704820632935,
          "27": 0.6950963735580444,
          "28": -1.6929941177368164,
          "29": -0.22161583602428436,
          "30": -2.7283694744110107,
          "31": -3.7546184062957764,
          "32": -0.7376463413238525,
          "33": 1.930067539215088,
          "34": 0.3253842294216156,
          "35": -0.3784719705581665,
          "36": 1.7515976428985596,
          "37": 0.4362194240093231,
          "38": -2.9519264698028564,
          "39": -1.7948110103607178,
          "40": 1.949653148651123,
          "41": 2.175934314727783,
          "42": -0.9739147424697876,
          "43": -3.4858193397521973,
          "44": 1.4225202798843384,
          "45": 0.5606093406677246,
          "46": -2.4355545043945312,
          "47": -0.6461803317070007,
          "48": 1.4319977760314941,
          "49": -2.7067549228668213,
          "50": 1.0455812215805054,
          "51": -3.3315396308898926,
